digraph Tree {
node [shape=box, fontname="helvetica"] ;
edge [fontname="helvetica"] ;
0 [label="x[7] <= 0.5\ngini = 0.478\nsamples = 569\nvalue = [344, 225]\nclass = setosa"] ;
1 [label="x[0] <= 2.5\ngini = 0.403\nsamples = 236\nvalue = [66, 170]\nclass = versicolor"] ;
0 -> 1 [labeldistance=2.5, labelangle=45, headlabel="True"] ;
2 [label="x[2] <= 56.5\ngini = 0.099\nsamples = 134\nvalue = [7, 127]\nclass = versicolor"] ;
1 -> 2 ;
3 [label="x[5] <= 28.856\ngini = 0.086\nsamples = 133\nvalue = [6, 127]\nclass = versicolor"] ;
2 -> 3 ;
4 [label="x[5] <= 28.231\ngini = 0.153\nsamples = 60\nvalue = [5, 55]\nclass = versicolor"] ;
3 -> 4 ;
5 [label="x[2] <= 27.5\ngini = 0.126\nsamples = 59\nvalue = [4, 55]\nclass = versicolor"] ;
4 -> 5 ;
6 [label="x[2] <= 25.5\ngini = 0.211\nsamples = 25\nvalue = [3, 22]\nclass = versicolor"] ;
5 -> 6 ;
7 [label="x[5] <= 13.396\ngini = 0.091\nsamples = 21\nvalue = [1, 20]\nclass = versicolor"] ;
6 -> 7 ;
8 [label="gini = 0.444\nsamples = 3\nvalue = [1, 2]\nclass = versicolor"] ;
7 -> 8 ;
9 [label="gini = 0.0\nsamples = 18\nvalue = [0, 18]\nclass = versicolor"] ;
7 -> 9 ;
10 [label="gini = 0.5\nsamples = 4\nvalue = [2, 2]\nclass = setosa"] ;
6 -> 10 ;
11 [label="x[2] <= 37.0\ngini = 0.057\nsamples = 34\nvalue = [1, 33]\nclass = versicolor"] ;
5 -> 11 ;
12 [label="gini = 0.0\nsamples = 21\nvalue = [0, 21]\nclass = versicolor"] ;
11 -> 12 ;
13 [label="x[2] <= 39.0\ngini = 0.142\nsamples = 13\nvalue = [1, 12]\nclass = versicolor"] ;
11 -> 13 ;
14 [label="gini = 0.0\nsamples = 1\nvalue = [1, 0]\nclass = setosa"] ;
13 -> 14 ;
15 [label="gini = 0.0\nsamples = 12\nvalue = [0, 12]\nclass = versicolor"] ;
13 -> 15 ;
16 [label="gini = 0.0\nsamples = 1\nvalue = [1, 0]\nclass = setosa"] ;
4 -> 16 ;
17 [label="x[5] <= 143.592\ngini = 0.027\nsamples = 73\nvalue = [1, 72]\nclass = versicolor"] ;
3 -> 17 ;
18 [label="gini = 0.0\nsamples = 58\nvalue = [0, 58]\nclass = versicolor"] ;
17 -> 18 ;
19 [label="x[5] <= 152.506\ngini = 0.124\nsamples = 15\nvalue = [1, 14]\nclass = versicolor"] ;
17 -> 19 ;
20 [label="gini = 0.444\nsamples = 3\nvalue = [1, 2]\nclass = versicolor"] ;
19 -> 20 ;
21 [label="gini = 0.0\nsamples = 12\nvalue = [0, 12]\nclass = versicolor"] ;
19 -> 21 ;
22 [label="gini = 0.0\nsamples = 1\nvalue = [1, 0]\nclass = setosa"] ;
2 -> 22 ;
23 [label="x[5] <= 20.825\ngini = 0.488\nsamples = 102\nvalue = [59.0, 43.0]\nclass = setosa"] ;
1 -> 23 ;
24 [label="x[2] <= 13.0\ngini = 0.487\nsamples = 69\nvalue = [29, 40]\nclass = versicolor"] ;
23 -> 24 ;
25 [label="x[5] <= 10.798\ngini = 0.133\nsamples = 14\nvalue = [1, 13]\nclass = versicolor"] ;
24 -> 25 ;
26 [label="gini = 0.5\nsamples = 2\nvalue = [1, 1]\nclass = setosa"] ;
25 -> 26 ;
27 [label="gini = 0.0\nsamples = 12\nvalue = [0, 12]\nclass = versicolor"] ;
25 -> 27 ;
28 [label="x[4] <= 1.5\ngini = 0.5\nsamples = 55\nvalue = [28.0, 27.0]\nclass = setosa"] ;
24 -> 28 ;
29 [label="x[5] <= 7.742\ngini = 0.493\nsamples = 50\nvalue = [28.0, 22.0]\nclass = setosa"] ;
28 -> 29 ;
30 [label="x[5] <= 7.24\ngini = 0.408\nsamples = 7\nvalue = [2, 5]\nclass = versicolor"] ;
29 -> 30 ;
31 [label="gini = 0.0\nsamples = 2\nvalue = [2, 0]\nclass = setosa"] ;
30 -> 31 ;
32 [label="gini = 0.0\nsamples = 5\nvalue = [0, 5]\nclass = versicolor"] ;
30 -> 32 ;
33 [label="x[5] <= 19.262\ngini = 0.478\nsamples = 43\nvalue = [26, 17]\nclass = setosa"] ;
29 -> 33 ;
34 [label="x[5] <= 17.6\ngini = 0.472\nsamples = 42\nvalue = [26, 16]\nclass = setosa"] ;
33 -> 34 ;
35 [label="x[5] <= 15.175\ngini = 0.484\nsamples = 39\nvalue = [23, 16]\nclass = setosa"] ;
34 -> 35 ;
36 [label="x[2] <= 19.5\ngini = 0.467\nsamples = 35\nvalue = [22, 13]\nclass = setosa"] ;
35 -> 36 ;
37 [label="gini = 0.496\nsamples = 11\nvalue = [5, 6]\nclass = versicolor"] ;
36 -> 37 ;
38 [label="gini = 0.413\nsamples = 24\nvalue = [17, 7]\nclass = setosa"] ;
36 -> 38 ;
39 [label="gini = 0.375\nsamples = 4\nvalue = [1, 3]\nclass = versicolor"] ;
35 -> 39 ;
40 [label="gini = 0.0\nsamples = 3\nvalue = [3, 0]\nclass = setosa"] ;
34 -> 40 ;
41 [label="gini = 0.0\nsamples = 1\nvalue = [0, 1]\nclass = versicolor"] ;
33 -> 41 ;
42 [label="gini = 0.0\nsamples = 5\nvalue = [0, 5]\nclass = versicolor"] ;
28 -> 42 ;
43 [label="x[3] <= 1.5\ngini = 0.165\nsamples = 33\nvalue = [30, 3]\nclass = setosa"] ;
23 -> 43 ;
44 [label="x[2] <= 7.0\ngini = 0.375\nsamples = 8\nvalue = [6, 2]\nclass = setosa"] ;
43 -> 44 ;
45 [label="gini = 0.0\nsamples = 1\nvalue = [0, 1]\nclass = versicolor"] ;
44 -> 45 ;
46 [label="x[5] <= 31.331\ngini = 0.245\nsamples = 7\nvalue = [6, 1]\nclass = setosa"] ;
44 -> 46 ;
47 [label="gini = 0.0\nsamples = 4\nvalue = [4, 0]\nclass = setosa"] ;
46 -> 47 ;
48 [label="gini = 0.444\nsamples = 3\nvalue = [2, 1]\nclass = setosa"] ;
46 -> 48 ;
49 [label="x[2] <= 5.5\ngini = 0.077\nsamples = 25\nvalue = [24, 1]\nclass = setosa"] ;
43 -> 49 ;
50 [label="x[2] <= 4.5\ngini = 0.198\nsamples = 9\nvalue = [8, 1]\nclass = setosa"] ;
49 -> 50 ;
51 [label="gini = 0.0\nsamples = 8\nvalue = [8, 0]\nclass = setosa"] ;
50 -> 51 ;
52 [label="gini = 0.0\nsamples = 1\nvalue = [0, 1]\nclass = versicolor"] ;
50 -> 52 ;
53 [label="gini = 0.0\nsamples = 16\nvalue = [16, 0]\nclass = setosa"] ;
49 -> 53 ;
54 [label="x[0] <= 1.5\ngini = 0.276\nsamples = 333\nvalue = [278, 55]\nclass = setosa"] ;
0 -> 54 [labeldistance=2.5, labelangle=-45, headlabel="False"] ;
55 [label="x[2] <= 53.0\ngini = 0.477\nsamples = 79\nvalue = [48, 31]\nclass = setosa"] ;
54 -> 55 ;
56 [label="x[5] <= 77.79\ngini = 0.498\nsamples = 60\nvalue = [32, 28]\nclass = setosa"] ;
55 -> 56 ;
57 [label="x[5] <= 25.938\ngini = 0.494\nsamples = 45\nvalue = [20, 25]\nclass = versicolor"] ;
56 -> 57 ;
58 [label="gini = 0.0\nsamples = 5\nvalue = [5, 0]\nclass = setosa"] ;
57 -> 58 ;
59 [label="x[5] <= 27.135\ngini = 0.469\nsamples = 40\nvalue = [15, 25]\nclass = versicolor"] ;
57 -> 59 ;
60 [label="x[2] <= 43.5\ngini = 0.165\nsamples = 11\nvalue = [1, 10]\nclass = versicolor"] ;
59 -> 60 ;
61 [label="gini = 0.0\nsamples = 7\nvalue = [0, 7]\nclass = versicolor"] ;
60 -> 61 ;
62 [label="gini = 0.375\nsamples = 4\nvalue = [1, 3]\nclass = versicolor"] ;
60 -> 62 ;
63 [label="x[2] <= 27.5\ngini = 0.499\nsamples = 29\nvalue = [14.0, 15.0]\nclass = versicolor"] ;
59 -> 63 ;
64 [label="x[2] <= 21.0\ngini = 0.245\nsamples = 7\nvalue = [1, 6]\nclass = versicolor"] ;
63 -> 64 ;
65 [label="gini = 0.0\nsamples = 1\nvalue = [1, 0]\nclass = setosa"] ;
64 -> 65 ;
66 [label="gini = 0.0\nsamples = 6\nvalue = [0, 6]\nclass = versicolor"] ;
64 -> 66 ;
67 [label="x[2] <= 47.5\ngini = 0.483\nsamples = 22\nvalue = [13, 9]\nclass = setosa"] ;
63 -> 67 ;
68 [label="x[5] <= 52.277\ngini = 0.415\nsamples = 17\nvalue = [12, 5]\nclass = setosa"] ;
67 -> 68 ;
69 [label="x[5] <= 37.0\ngini = 0.337\nsamples = 14\nvalue = [11, 3]\nclass = setosa"] ;
68 -> 69 ;
70 [label="gini = 0.469\nsamples = 8\nvalue = [5, 3]\nclass = setosa"] ;
69 -> 70 ;
71 [label="gini = 0.0\nsamples = 6\nvalue = [6, 0]\nclass = setosa"] ;
69 -> 71 ;
72 [label="gini = 0.444\nsamples = 3\nvalue = [1, 2]\nclass = versicolor"] ;
68 -> 72 ;
73 [label="x[4] <= 0.5\ngini = 0.32\nsamples = 5\nvalue = [1, 4]\nclass = versicolor"] ;
67 -> 73 ;
74 [label="gini = 0.0\nsamples = 4\nvalue = [0, 4]\nclass = versicolor"] ;
73 -> 74 ;
75 [label="gini = 0.0\nsamples = 1\nvalue = [1, 0]\nclass = setosa"] ;
73 -> 75 ;
76 [label="x[2] <= 24.5\ngini = 0.32\nsamples = 15\nvalue = [12, 3]\nclass = setosa"] ;
56 -> 76 ;
77 [label="gini = 0.0\nsamples = 5\nvalue = [5, 0]\nclass = setosa"] ;
76 -> 77 ;
78 [label="x[5] <= 86.737\ngini = 0.42\nsamples = 10\nvalue = [7, 3]\nclass = setosa"] ;
76 -> 78 ;
79 [label="gini = 0.0\nsamples = 4\nvalue = [4, 0]\nclass = setosa"] ;
78 -> 79 ;
80 [label="x[5] <= 98.752\ngini = 0.5\nsamples = 6\nvalue = [3, 3]\nclass = setosa"] ;
78 -> 80 ;
81 [label="gini = 0.0\nsamples = 2\nvalue = [0, 2]\nclass = versicolor"] ;
80 -> 81 ;
82 [label="gini = 0.375\nsamples = 4\nvalue = [3, 1]\nclass = setosa"] ;
80 -> 82 ;
83 [label="x[2] <= 75.5\ngini = 0.266\nsamples = 19\nvalue = [16, 3]\nclass = setosa"] ;
55 -> 83 ;
84 [label="x[6] <= 1.0\ngini = 0.198\nsamples = 18\nvalue = [16, 2]\nclass = setosa"] ;
83 -> 84 ;
85 [label="x[5] <= 70.59\ngini = 0.408\nsamples = 7\nvalue = [5, 2]\nclass = setosa"] ;
84 -> 85 ;
86 [label="x[2] <= 57.0\ngini = 0.278\nsamples = 6\nvalue = [5, 1]\nclass = setosa"] ;
85 -> 86 ;
87 [label="gini = 0.5\nsamples = 2\nvalue = [1, 1]\nclass = setosa"] ;
86 -> 87 ;
88 [label="gini = 0.0\nsamples = 4\nvalue = [4, 0]\nclass = setosa"] ;
86 -> 88 ;
89 [label="gini = 0.0\nsamples = 1\nvalue = [0, 1]\nclass = versicolor"] ;
85 -> 89 ;
90 [label="gini = 0.0\nsamples = 11\nvalue = [11, 0]\nclass = setosa"] ;
84 -> 90 ;
91 [label="gini = 0.0\nsamples = 1\nvalue = [0, 1]\nclass = versicolor"] ;
83 -> 91 ;
92 [label="x[5] <= 9.673\ngini = 0.171\nsamples = 254\nvalue = [230, 24]\nclass = setosa"] ;
54 -> 92 ;
93 [label="x[2] <= 32.5\ngini = 0.216\nsamples = 154\nvalue = [135, 19]\nclass = setosa"] ;
92 -> 93 ;
94 [label="x[2] <= 26.5\ngini = 0.263\nsamples = 109\nvalue = [92, 17]\nclass = setosa"] ;
93 -> 94 ;
95 [label="x[5] <= 2.006\ngini = 0.184\nsamples = 78\nvalue = [70, 8]\nclass = setosa"] ;
94 -> 95 ;
96 [label="gini = 0.5\nsamples = 2\nvalue = [1, 1]\nclass = setosa"] ;
95 -> 96 ;
97 [label="x[3] <= 0.5\ngini = 0.167\nsamples = 76\nvalue = [69, 7]\nclass = setosa"] ;
95 -> 97 ;
98 [label="x[5] <= 7.227\ngini = 0.138\nsamples = 67\nvalue = [62, 5]\nclass = setosa"] ;
97 -> 98 ;
99 [label="x[5] <= 7.133\ngini = 0.298\nsamples = 11\nvalue = [9, 2]\nclass = setosa"] ;
98 -> 99 ;
100 [label="gini = 0.0\nsamples = 8\nvalue = [8, 0]\nclass = setosa"] ;
99 -> 100 ;
101 [label="gini = 0.444\nsamples = 3\nvalue = [1, 2]\nclass = versicolor"] ;
99 -> 101 ;
102 [label="x[2] <= 18.5\ngini = 0.101\nsamples = 56\nvalue = [53, 3]\nclass = setosa"] ;
98 -> 102 ;
103 [label="x[5] <= 8.175\ngini = 0.278\nsamples = 12\nvalue = [10, 2]\nclass = setosa"] ;
102 -> 103 ;
104 [label="gini = 0.408\nsamples = 7\nvalue = [5, 2]\nclass = setosa"] ;
103 -> 104 ;
105 [label="gini = 0.0\nsamples = 5\nvalue = [5, 0]\nclass = setosa"] ;
103 -> 105 ;
106 [label="x[5] <= 7.798\ngini = 0.044\nsamples = 44\nvalue = [43, 1]\nclass = setosa"] ;
102 -> 106 ;
107 [label="gini = 0.133\nsamples = 14\nvalue = [13, 1]\nclass = setosa"] ;
106 -> 107 ;
108 [label="gini = 0.0\nsamples = 30\nvalue = [30, 0]\nclass = setosa"] ;
106 -> 108 ;
109 [label="x[2] <= 19.0\ngini = 0.346\nsamples = 9\nvalue = [7, 2]\nclass = setosa"] ;
97 -> 109 ;
110 [label="gini = 0.0\nsamples = 4\nvalue = [4, 0]\nclass = setosa"] ;
109 -> 110 ;
111 [label="x[2] <= 25.5\ngini = 0.48\nsamples = 5\nvalue = [3, 2]\nclass = setosa"] ;
109 -> 111 ;
112 [label="gini = 0.444\nsamples = 3\nvalue = [1, 2]\nclass = versicolor"] ;
111 -> 112 ;
113 [label="gini = 0.0\nsamples = 2\nvalue = [2, 0]\nclass = setosa"] ;
111 -> 113 ;
114 [label="x[2] <= 27.5\ngini = 0.412\nsamples = 31\nvalue = [22, 9]\nclass = setosa"] ;
94 -> 114 ;
115 [label="gini = 0.0\nsamples = 3\nvalue = [0, 3]\nclass = versicolor"] ;
114 -> 115 ;
116 [label="x[5] <= 9.492\ngini = 0.337\nsamples = 28\nvalue = [22, 6]\nclass = setosa"] ;
114 -> 116 ;
117 [label="x[2] <= 31.5\ngini = 0.26\nsamples = 26\nvalue = [22, 4]\nclass = setosa"] ;
116 -> 117 ;
118 [label="x[6] <= 0.5\ngini = 0.1\nsamples = 19\nvalue = [18, 1]\nclass = setosa"] ;
117 -> 118 ;
119 [label="gini = 0.375\nsamples = 4\nvalue = [3, 1]\nclass = setosa"] ;
118 -> 119 ;
120 [label="gini = 0.0\nsamples = 15\nvalue = [15, 0]\nclass = setosa"] ;
118 -> 120 ;
121 [label="x[5] <= 7.988\ngini = 0.49\nsamples = 7\nvalue = [4, 3]\nclass = setosa"] ;
117 -> 121 ;
122 [label="x[5] <= 7.802\ngini = 0.444\nsamples = 6\nvalue = [4, 2]\nclass = setosa"] ;
121 -> 122 ;
123 [label="gini = 0.0\nsamples = 1\nvalue = [1, 0]\nclass = setosa"] ;
122 -> 123 ;
124 [label="gini = 0.48\nsamples = 5\nvalue = [3, 2]\nclass = setosa"] ;
122 -> 124 ;
125 [label="gini = 0.0\nsamples = 1\nvalue = [0, 1]\nclass = versicolor"] ;
121 -> 125 ;
126 [label="gini = 0.0\nsamples = 2\nvalue = [0, 2]\nclass = versicolor"] ;
116 -> 126 ;
127 [label="x[5] <= 7.91\ngini = 0.085\nsamples = 45\nvalue = [43, 2]\nclass = setosa"] ;
93 -> 127 ;
128 [label="gini = 0.0\nsamples = 25\nvalue = [25, 0]\nclass = setosa"] ;
127 -> 128 ;
129 [label="x[5] <= 7.988\ngini = 0.18\nsamples = 20\nvalue = [18, 2]\nclass = setosa"] ;
127 -> 129 ;
130 [label="gini = 0.444\nsamples = 3\nvalue = [2, 1]\nclass = setosa"] ;
129 -> 130 ;
131 [label="x[2] <= 44.5\ngini = 0.111\nsamples = 17\nvalue = [16, 1]\nclass = setosa"] ;
129 -> 131 ;
132 [label="gini = 0.0\nsamples = 12\nvalue = [12, 0]\nclass = setosa"] ;
131 -> 132 ;
133 [label="x[2] <= 46.0\ngini = 0.32\nsamples = 5\nvalue = [4, 1]\nclass = setosa"] ;
131 -> 133 ;
134 [label="gini = 0.0\nsamples = 1\nvalue = [0, 1]\nclass = versicolor"] ;
133 -> 134 ;
135 [label="gini = 0.0\nsamples = 4\nvalue = [4, 0]\nclass = setosa"] ;
133 -> 135 ;
136 [label="x[2] <= 31.5\ngini = 0.095\nsamples = 100\nvalue = [95, 5]\nclass = setosa"] ;
92 -> 136 ;
137 [label="gini = 0.0\nsamples = 54\nvalue = [54, 0]\nclass = setosa"] ;
136 -> 137 ;
138 [label="x[2] <= 32.25\ngini = 0.194\nsamples = 46\nvalue = [41, 5]\nclass = setosa"] ;
136 -> 138 ;
139 [label="x[5] <= 20.925\ngini = 0.48\nsamples = 5\nvalue = [3, 2]\nclass = setosa"] ;
138 -> 139 ;
140 [label="gini = 0.0\nsamples = 2\nvalue = [2, 0]\nclass = setosa"] ;
139 -> 140 ;
141 [label="gini = 0.444\nsamples = 3\nvalue = [1, 2]\nclass = versicolor"] ;
139 -> 141 ;
142 [label="x[5] <= 13.25\ngini = 0.136\nsamples = 41\nvalue = [38, 3]\nclass = setosa"] ;
138 -> 142 ;
143 [label="x[2] <= 64.0\ngini = 0.305\nsamples = 16\nvalue = [13, 3]\nclass = setosa"] ;
142 -> 143 ;
144 [label="x[2] <= 57.0\ngini = 0.337\nsamples = 14\nvalue = [11, 3]\nclass = setosa"] ;
143 -> 144 ;
145 [label="x[2] <= 34.5\ngini = 0.26\nsamples = 13\nvalue = [11, 2]\nclass = setosa"] ;
144 -> 145 ;
146 [label="gini = 0.444\nsamples = 3\nvalue = [2, 1]\nclass = setosa"] ;
145 -> 146 ;
147 [label="x[2] <= 40.5\ngini = 0.18\nsamples = 10\nvalue = [9, 1]\nclass = setosa"] ;
145 -> 147 ;
148 [label="gini = 0.0\nsamples = 5\nvalue = [5, 0]\nclass = setosa"] ;
147 -> 148 ;
149 [label="gini = 0.32\nsamples = 5\nvalue = [4, 1]\nclass = setosa"] ;
147 -> 149 ;
150 [label="gini = 0.0\nsamples = 1\nvalue = [0, 1]\nclass = versicolor"] ;
144 -> 150 ;
151 [label="gini = 0.0\nsamples = 2\nvalue = [2, 0]\nclass = setosa"] ;
143 -> 151 ;
152 [label="gini = 0.0\nsamples = 25\nvalue = [25, 0]\nclass = setosa"] ;
142 -> 152 ;
}